<?xml version="1.0" encoding="ISO-8859-1"?>
<smile version="1.0" id="Unnamed" numsamples="1000" discsamples="10000">
	<nodes>
		<cpt id="V10_11_PER">
			<state id="per1_below_16" />
			<state id="per2_16_22" />
			<state id="per3_22_up" />
			<probabilities>0.2564102564102564 0.673992673992674 0.0695970695970696</probabilities>
		</cpt>
		<cpt id="V11_12_PER">
			<state id="per1_below_16" />
			<state id="per2_16_22" />
			<state id="per3_22_up" />
			<parents>V10_11_PER</parents>
			<probabilities>0.7222222222222222 0.2638888888888889 0.01388888888888889 0.2150537634408602 0.6666666666666667 0.1182795698924731 0.04761904761904762 0.4761904761904762 0.4761904761904762</probabilities>
		</cpt>
		<cpt id="V12_13_PER">
			<state id="per1_below_16" />
			<state id="per2_16_22" />
			<state id="per3_22_up" />
			<parents>V10_11_PER V11_12_PER</parents>
			<probabilities>0.7407407407407407 0.2407407407407407 0.01851851851851852 0.1904761904761905 0.761904761904762 0.04761904761904762 0.3333333333333333 0.3333333333333333 0.3333333333333333 0.6666666666666666 0.3095238095238095 0.02380952380952381 0.2698412698412698 0.6507936507936507 0.07936507936507936 0.04166666666666666 0.5416666666666666 0.4166666666666667 0.3333333333333333 0.3333333333333333 0.3333333333333333 0.08333333333333333 0.5833333333333334 0.3333333333333333 0.08333333333333333 0.3333333333333333 0.5833333333333334</probabilities>
		</cpt>
		<cpt id="V13_14_PER">
			<state id="per1_below_16" />
			<state id="per2_16_22" />
			<state id="per3_22_up" />
			<parents>V10_11_PER V11_12_PER V12_13_PER</parents>
			<probabilities>0.7380952380952381 0.2380952380952381 0.02380952380952381 0.2666666666666667 0.6666666666666667 0.06666666666666667 0.3333333333333333 0.3333333333333333 0.3333333333333333 0.1666666666666667 0.6666666666666667 0.1666666666666667 0.3888888888888889 0.5555555555555556 0.05555555555555555 0.3333333333333333 0.3333333333333333 0.3333333333333333 0.3333333333333333 0.3333333333333333 0.3333333333333333 0.3333333333333333 0.3333333333333333 0.3333333333333333 0.3333333333333333 0.3333333333333333 0.3333333333333333 0.8333333333333333 0.1333333333333333 0.03333333333333333 0.8666666666666668 0.06666666666666668 0.06666666666666668 0.3333333333333333 0.3333333333333333 0.3333333333333333 0.7777777777777777 0.1944444444444444 0.02777777777777777 0.1904761904761905 0.7261904761904763 0.08333333333333336 0.08333333333333333 0.08333333333333333 0.8333333333333334 0.3333333333333333 0.3333333333333333 0.3333333333333333 0.06666666666666667 0.6666666666666667 0.2666666666666667 0.08333333333333333 0.5833333333333334 0.3333333333333333 0.3333333333333333 0.3333333333333333 0.3333333333333333 0.3333333333333333 0.3333333333333333 0.3333333333333333 0.3333333333333333 0.3333333333333333 0.3333333333333333 0.3333333333333333 0.3333333333333333 0.3333333333333333 0.1111111111111111 0.7777777777777777 0.1111111111111111 0.1666666666666667 0.6666666666666667 0.1666666666666667 0.3333333333333333 0.3333333333333333 0.3333333333333333 0.1666666666666667 0.1666666666666667 0.6666666666666666 0.1111111111111111 0.1111111111111111 0.7777777777777778</probabilities>
		</cpt>
		<cpt id="V14_15_PER">
			<state id="per1_below_16" />
			<state id="per2_16_22" />
			<state id="per3_22_up" />
			<parents>V10_11_PER V11_12_PER V12_13_PER V13_14_PER</parents>
			<probabilities>0.7575757575757576 0.2121212121212121 0.0303030303030303 0.5833333333333334 0.3333333333333333 0.08333333333333333 0.3333333333333333 0.3333333333333333 0.3333333333333333 0.1666666666666667 0.6666666666666667 0.1666666666666667 0.3333333333333333 0.5833333333333334 0.08333333333333333 0.3333333333333333 0.3333333333333333 0.3333333333333333 0.3333333333333333 0.3333333333333333 0.3333333333333333 0.3333333333333333 0.3333333333333333 0.3333333333333333 0.3333333333333333 0.3333333333333333 0.3333333333333333 0.3333333333333333 0.3333333333333333 0.3333333333333333 0.6666666666666667 0.1666666666666667 0.1666666666666667 0.3333333333333333 0.3333333333333333 0.3333333333333333 0.4444444444444444 0.4444444444444444 0.1111111111111111 0.08333333333333333 0.8333333333333334 0.08333333333333333 0.3333333333333333 0.3333333333333333 0.3333333333333333 0.3333333333333333 0.3333333333333333 0.3333333333333333 0.3333333333333333 0.3333333333333333 0.3333333333333333 0.3333333333333333 0.3333333333333333 0.3333333333333333 0.3333333333333333 0.3333333333333333 0.3333333333333333 0.3333333333333333 0.3333333333333333 0.3333333333333333 0.3333333333333333 0.3333333333333333 0.3333333333333333 0.3333333333333333 0.3333333333333333 0.3333333333333333 0.3333333333333333 0.3333333333333333 0.3333333333333333 0.3333333333333333 0.3333333333333333 0.3333333333333333 0.3333333333333333 0.3333333333333333 0.3333333333333333 0.3333333333333333 0.3333333333333333 0.3333333333333333 0.3333333333333333 0.3333333333333333 0.3333333333333333 0.9259259259259258 0.03703703703703703 0.03703703703703703 0.6666666666666667 0.1666666666666667 0.1666666666666667 0.3333333333333333 0.3333333333333333 0.3333333333333333 0.6666666666666667 0.2666666666666667 0.06666666666666667 0.3333333333333333 0.3333333333333333 0.3333333333333333 0.3333333333333333 0.3333333333333333 0.3333333333333333 0.3333333333333333 0.3333333333333333 0.3333333333333333 0.3333333333333333 0.3333333333333333 0.3333333333333333 0.3333333333333333 0.3333333333333333 0.3333333333333333 0.6333333333333333 0.3333333333333334 0.03333333333333333 0.7777777777777777 0.1111111111111111 0.1111111111111111 0.3333333333333333 0.3333333333333333 0.3333333333333333 0.7222222222222222 0.2222222222222222 0.05555555555555556 0.3015873015873016 0.6825396825396826 0.01587301587301587 0.1111111111111111 0.4444444444444444 0.4444444444444444 0.3333333333333333 0.3333333333333333 0.3333333333333333 0.3333333333333333 0.3333333333333333 0.3333333333333333 0.08333333333333333 0.5833333333333334 0.3333333333333333 0.3333333333333333 0.3333333333333333 0.3333333333333333 0.3333333333333333 0.3333333333333333 0.3333333333333333 0.3333333333333333 0.3333333333333333 0.3333333333333333 0.3333333333333333 0.3333333333333333 0.3333333333333333 0.08333333333333333 0.5833333333333334 0.3333333333333333 0.1666666666666667 0.6666666666666667 0.1666666666666667 0.3333333333333333 0.3333333333333333 0.3333333333333333 0.1111111111111111 0.7777777777777777 0.1111111111111111 0.1666666666666667 0.1666666666666667 0.6666666666666666 0.3333333333333333 0.3333333333333333 0.3333333333333333 0.3333333333333333 0.3333333333333333 0.3333333333333333 0.3333333333333333 0.3333333333333333 0.3333333333333333 0.3333333333333333 0.3333333333333333 0.3333333333333333 0.3333333333333333 0.3333333333333333 0.3333333333333333 0.3333333333333333 0.3333333333333333 0.3333333333333333 0.3333333333333333 0.3333333333333333 0.3333333333333333 0.3333333333333333 0.3333333333333333 0.3333333333333333 0.3333333333333333 0.3333333333333333 0.3333333333333333 0.3333333333333333 0.3333333333333333 0.3333333333333333 0.3333333333333333 0.3333333333333333 0.3333333333333333 0.3333333333333333 0.3333333333333333 0.3333333333333333 0.3333333333333333 0.3333333333333333 0.3333333333333333 0.1111111111111111 0.4444444444444444 0.4444444444444444 0.3333333333333333 0.3333333333333333 0.3333333333333333 0.3333333333333333 0.3333333333333333 0.3333333333333333 0.1666666666666667 0.6666666666666667 0.1666666666666667 0.3333333333333333 0.3333333333333333 0.3333333333333333 0.3333333333333333 0.3333333333333333 0.3333333333333333 0.3333333333333333 0.3333333333333333 0.3333333333333333 0.3333333333333333 0.3333333333333333 0.3333333333333333 0.3333333333333333 0.3333333333333333 0.3333333333333333 0.3333333333333333 0.3333333333333333 0.3333333333333333 0.1666666666666667 0.6666666666666667 0.1666666666666667 0.3333333333333333 0.3333333333333333 0.3333333333333333 0.3333333333333333 0.3333333333333333 0.3333333333333333 0.1111111111111111 0.1111111111111111 0.7777777777777778</probabilities>
		</cpt>
	</nodes>
	<extensions>
		<genie version="1.0" app="GeNIe 2.0.5219.0" name="largeset" faultnameformat="nodestate">
			<node id="V10_11_PER">
				<name>V10_11_PER</name>
				<interior color="e5f6f7" />
				<outline color="000080" />
				<font color="000000" name="Arial" size="8" />
				<position>76 145 148 193</position>
			</node>
			<node id="V11_12_PER">
				<name>V11_12_PER</name>
				<interior color="e5f6f7" />
				<outline color="000080" />
				<font color="000000" name="Arial" size="8" />
				<position>224 378 296 426</position>
			</node>
			<node id="V12_13_PER">
				<name>V12_13_PER</name>
				<interior color="e5f6f7" />
				<outline color="000080" />
				<font color="000000" name="Arial" size="8" />
				<position>711 386 783 434</position>
			</node>
			<node id="V13_14_PER">
				<name>V13_14_PER</name>
				<interior color="e5f6f7" />
				<outline color="000080" />
				<font color="000000" name="Arial" size="8" />
				<position>451 20 523 68</position>
			</node>
			<node id="V14_15_PER">
				<name>V14_15_PER</name>
				<interior color="e5f6f7" />
				<outline color="000080" />
				<font color="000000" name="Arial" size="8" />
				<position>818 142 890 190</position>
			</node>
			<textbox>
				<caption>Input file: largeset\nData rows: 90\n\nLearning algorithm: Bayesian Search\nElapsed time: 0 seconds\nBest score in iteration 0: -473.449\n\nAlgorithm parameters:\nMax parent count: 8\nIterations: 20\nSample size: 50\nSeed: 0\nLink probability: 0.1\nPrior link probability: 0.001\nMax search time: 0\nUse accuracy as score: no\nBackground knowledge was provided:\n  forced arcs: 10\n  nodes assigned to tiers: 1</caption>
				<font color="000000" name="Arial" size="8" />
				<position>47 463 234 729</position>
			</textbox>
		</genie>
	</extensions>
</smile>
